digraph Tree {
node [shape=box] ;
0 [label="medianSalesPrice20092010 <= 40470.0\ngini = 0.8104\nsamples = 702\nvalue = [209, 92, 117, 114, 76, 94]"] ;
1 [label="sales20092010 <= 4.5\ngini = 0.2762\nsamples = 247\nvalue = [207, 0, 0, 4, 36, 0]"] ;
0 -> 1 [labeldistance=2.5, labelangle=45, headlabel="True"] ;
2 [label="gini = 0.0\nsamples = 36\nvalue = [0, 0, 0, 0, 36, 0]"] ;
1 -> 2 ;
3 [label="medianSalesPrice20092010 <= 38150.0\ngini = 0.0372\nsamples = 211\nvalue = [207, 0, 0, 4, 0, 0]"] ;
1 -> 3 ;
4 [label="gini = 0.0\nsamples = 200\nvalue = [200, 0, 0, 0, 0, 0]"] ;
3 -> 4 ;
5 [label="vacantLots <= 6.0\ngini = 0.4628\nsamples = 11\nvalue = [7, 0, 0, 4, 0, 0]"] ;
3 -> 5 ;
6 [label="commercialResidentialLandRatio <= 577.185\ngini = 0.32\nsamples = 5\nvalue = [1, 0, 0, 4, 0, 0]"] ;
5 -> 6 ;
7 [label="gini = 0.0\nsamples = 4\nvalue = [0, 0, 0, 4, 0, 0]"] ;
6 -> 7 ;
8 [label="gini = 0.0\nsamples = 1\nvalue = [1, 0, 0, 0, 0, 0]"] ;
6 -> 8 ;
9 [label="gini = 0.0\nsamples = 6\nvalue = [6, 0, 0, 0, 0, 0]"] ;
5 -> 9 ;
10 [label="medianSalesPrice20092010 <= 110719.0\ngini = 0.7841\nsamples = 455\nvalue = [2, 92, 117, 110, 40, 94]"] ;
0 -> 10 [labeldistance=2.5, labelangle=-45, headlabel="False"] ;
11 [label="medianSalesPrice20092010 <= 68021.5\ngini = 0.5858\nsamples = 225\nvalue = [2, 92, 1, 110, 20, 0]"] ;
10 -> 11 ;
12 [label="sales20092010 <= 4.5\ngini = 0.2011\nsamples = 119\nvalue = [2, 3, 0, 106, 8, 0]"] ;
11 -> 12 ;
13 [label="gini = 0.0\nsamples = 8\nvalue = [0, 0, 0, 0, 8, 0]"] ;
12 -> 13 ;
14 [label="medianSalesPrice20092010 <= 65137.5\ngini = 0.087\nsamples = 111\nvalue = [2, 3, 0, 106, 0, 0]"] ;
12 -> 14 ;
15 [label="vacantHouseNotices <= 26.5\ngini = 0.0381\nsamples = 103\nvalue = [2, 0, 0, 101, 0, 0]"] ;
14 -> 15 ;
16 [label="vacantHouseNotices <= 23.0\ngini = 0.0194\nsamples = 102\nvalue = [1, 0, 0, 101, 0, 0]"] ;
15 -> 16 ;
17 [label="gini = 0.0\nsamples = 99\nvalue = [0, 0, 0, 99, 0, 0]"] ;
16 -> 17 ;
18 [label="commercialResidentialLandRatio <= 14.065\ngini = 0.4444\nsamples = 3\nvalue = [1, 0, 0, 2, 0, 0]"] ;
16 -> 18 ;
19 [label="gini = 0.0\nsamples = 2\nvalue = [0, 0, 0, 2, 0, 0]"] ;
18 -> 19 ;
20 [label="gini = 0.0\nsamples = 1\nvalue = [1, 0, 0, 0, 0, 0]"] ;
18 -> 20 ;
21 [label="gini = 0.0\nsamples = 1\nvalue = [1, 0, 0, 0, 0, 0]"] ;
15 -> 21 ;
22 [label="sales20092010 <= 19.5\ngini = 0.4688\nsamples = 8\nvalue = [0, 3, 0, 5, 0, 0]"] ;
14 -> 22 ;
23 [label="ownerOccupied <= 45.9\ngini = 0.375\nsamples = 4\nvalue = [0, 3, 0, 1, 0, 0]"] ;
22 -> 23 ;
24 [label="gini = 0.0\nsamples = 1\nvalue = [0, 0, 0, 1, 0, 0]"] ;
23 -> 24 ;
25 [label="gini = 0.0\nsamples = 3\nvalue = [0, 3, 0, 0, 0, 0]"] ;
23 -> 25 ;
26 [label="gini = 0.0\nsamples = 4\nvalue = [0, 0, 0, 4, 0, 0]"] ;
22 -> 26 ;
27 [label="sales20092010 <= 4.5\ngini = 0.2807\nsamples = 106\nvalue = [0, 89, 1, 4, 12, 0]"] ;
11 -> 27 ;
28 [label="gini = 0.0\nsamples = 12\nvalue = [0, 0, 0, 0, 12, 0]"] ;
27 -> 28 ;
29 [label="vacantHouseNotices <= 7.5\ngini = 0.1016\nsamples = 94\nvalue = [0, 89, 1, 4, 0, 0]"] ;
27 -> 29 ;
30 [label="sales20092010 <= 49.5\ngini = 0.0437\nsamples = 90\nvalue = [0, 88, 1, 1, 0, 0]"] ;
29 -> 30 ;
31 [label="medianSalesPrice20092010 <= 108125.0\ngini = 0.023\nsamples = 86\nvalue = [0, 85, 1, 0, 0, 0]"] ;
30 -> 31 ;
32 [label="gini = 0.0\nsamples = 82\nvalue = [0, 82, 0, 0, 0, 0]"] ;
31 -> 32 ;
33 [label="commercialResidentialLandRatio <= 6.85\ngini = 0.375\nsamples = 4\nvalue = [0, 3, 1, 0, 0, 0]"] ;
31 -> 33 ;
34 [label="gini = 0.0\nsamples = 3\nvalue = [0, 3, 0, 0, 0, 0]"] ;
33 -> 34 ;
35 [label="gini = 0.0\nsamples = 1\nvalue = [0, 0, 1, 0, 0, 0]"] ;
33 -> 35 ;
36 [label="salesPriceCoefficientVariance  <= 0.655\ngini = 0.375\nsamples = 4\nvalue = [0, 3, 0, 1, 0, 0]"] ;
30 -> 36 ;
37 [label="gini = 0.0\nsamples = 3\nvalue = [0, 3, 0, 0, 0, 0]"] ;
36 -> 37 ;
38 [label="gini = 0.0\nsamples = 1\nvalue = [0, 0, 0, 1, 0, 0]"] ;
36 -> 38 ;
39 [label="medianSalesPrice20092010 <= 78500.0\ngini = 0.375\nsamples = 4\nvalue = [0, 1, 0, 3, 0, 0]"] ;
29 -> 39 ;
40 [label="gini = 0.0\nsamples = 3\nvalue = [0, 0, 0, 3, 0, 0]"] ;
39 -> 40 ;
41 [label="gini = 0.0\nsamples = 1\nvalue = [0, 1, 0, 0, 0, 0]"] ;
39 -> 41 ;
42 [label="medianSalesPrice20092010 <= 175500.0\ngini = 0.571\nsamples = 230\nvalue = [0, 0, 116, 0, 20, 94]"] ;
10 -> 42 ;
43 [label="sales20092010 <= 4.5\ngini = 0.1666\nsamples = 123\nvalue = [0, 0, 112, 0, 7, 4]"] ;
42 -> 43 ;
44 [label="gini = 0.0\nsamples = 7\nvalue = [0, 0, 0, 0, 7, 0]"] ;
43 -> 44 ;
45 [label="sales20092010 <= 57.0\ngini = 0.0666\nsamples = 116\nvalue = [0, 0, 112, 0, 0, 4]"] ;
43 -> 45 ;
46 [label="unitsPerSquareMile <= 9241.665\ngini = 0.0177\nsamples = 112\nvalue = [0, 0, 111, 0, 0, 1]"] ;
45 -> 46 ;
47 [label="gini = 0.0\nsamples = 103\nvalue = [0, 0, 103, 0, 0, 0]"] ;
46 -> 47 ;
48 [label="unitsPerSquareMile <= 9845.0\ngini = 0.1975\nsamples = 9\nvalue = [0, 0, 8, 0, 0, 1]"] ;
46 -> 48 ;
49 [label="gini = 0.0\nsamples = 1\nvalue = [0, 0, 0, 0, 0, 1]"] ;
48 -> 49 ;
50 [label="gini = 0.0\nsamples = 8\nvalue = [0, 0, 8, 0, 0, 0]"] ;
48 -> 50 ;
51 [label="medianSalesPrice20092010 <= 156350.0\ngini = 0.375\nsamples = 4\nvalue = [0, 0, 1, 0, 0, 3]"] ;
45 -> 51 ;
52 [label="gini = 0.0\nsamples = 1\nvalue = [0, 0, 1, 0, 0, 0]"] ;
51 -> 52 ;
53 [label="gini = 0.0\nsamples = 3\nvalue = [0, 0, 0, 0, 0, 3]"] ;
51 -> 53 ;
54 [label="sales20092010 <= 4.5\ngini = 0.2764\nsamples = 107\nvalue = [0, 0, 4, 0, 13, 90]"] ;
42 -> 54 ;
55 [label="gini = 0.0\nsamples = 13\nvalue = [0, 0, 0, 0, 13, 0]"] ;
54 -> 55 ;
56 [label="medianSalesPrice20092010 <= 201750.0\ngini = 0.0815\nsamples = 94\nvalue = [0, 0, 4, 0, 0, 90]"] ;
54 -> 56 ;
57 [label="unitsPerSquareMile <= 3908.335\ngini = 0.3599\nsamples = 17\nvalue = [0, 0, 4, 0, 0, 13]"] ;
56 -> 57 ;
58 [label="gini = 0.0\nsamples = 4\nvalue = [0, 0, 4, 0, 0, 0]"] ;
57 -> 58 ;
59 [label="gini = 0.0\nsamples = 13\nvalue = [0, 0, 0, 0, 0, 13]"] ;
57 -> 59 ;
60 [label="gini = 0.0\nsamples = 77\nvalue = [0, 0, 0, 0, 0, 77]"] ;
56 -> 60 ;
}